<?xml version="1.0"?>
<opencv_storage>
<cascade>
  <stageType>BOOST</stageType>
  <featureType>HAAR</featureType>
  <height>36</height>
  <width>36</width>
  <stageParams>
    <boostType>GAB</boostType>
    <minHitRate>9.9500000476837158e-01</minHitRate>
    <maxFalseAlarm>5.0000000000000000e-01</maxFalseAlarm>
    <weightTrimRate>9.4999998807907104e-01</weightTrimRate>
    <maxDepth>1</maxDepth>
    <maxWeakCount>100</maxWeakCount></stageParams>
  <featureParams>
    <maxCatCount>0</maxCatCount>
    <featSize>1</featSize>
    <mode>BASIC</mode></featureParams>
  <stageNum>4</stageNum>
  <stages>
    <!-- stage 0 -->
    <_>
      <maxWeakCount>1</maxWeakCount>
      <stageThreshold>9.0476191043853760e-01</stageThreshold>
      <weakClassifiers>
        <_>
          <internalNodes>
            0 -1 4 -1.1734016239643097e-02</internalNodes>
          <leafValues>
            9.0476191043853760e-01 -1.</leafValues></_></weakClassifiers></_>
    <!-- stage 1 -->
    <_>
      <maxWeakCount>1</maxWeakCount>
      <stageThreshold>6.0000002384185791e-01</stageThreshold>
      <weakClassifiers>
        <_>
          <internalNodes>
            0 -1 1 -1.1081344634294510e-01</internalNodes>
          <leafValues>
            6.0000002384185791e-01 -1.</leafValues></_></weakClassifiers></_>
    <!-- stage 2 -->
    <_>
      <maxWeakCount>2</maxWeakCount>
      <stageThreshold>-2.9987433552742004e-01</stageThreshold>
      <weakClassifiers>
        <_>
          <internalNodes>
            0 -1 5 3.5501707345247269e-02</internalNodes>
          <leafValues>
            -9.5238095521926880e-01 5.6521737575531006e-01</leafValues></_>
        <_>
          <internalNodes>
            0 -1 2 -3.3347707986831665e-01</internalNodes>
          <leafValues>
            8.3137530088424683e-01 -8.6509174108505249e-01</leafValues></_></weakClassifiers></_>
    <!-- stage 3 -->
    <_>
      <maxWeakCount>2</maxWeakCount>
      <stageThreshold>1.6612255573272705e-01</stageThreshold>
      <weakClassifiers>
        <_>
          <internalNodes>
            0 -1 3 -7.9573616385459900e-02</internalNodes>
          <leafValues>
            1. -7.9381442070007324e-01</leafValues></_>
        <_>
          <internalNodes>
            0 -1 0 -2.4997380375862122e-01</internalNodes>
          <leafValues>
            9.5993697643280029e-01 -8.2712775468826294e-01</leafValues></_></weakClassifiers></_></stages>
  <features>
    <_>
      <rects>
        <_>
          0 0 31 18 -1.</_>
        <_>
          0 6 31 6 3.</_></rects>
      <tilted>0</tilted></_>
    <_>
      <rects>
        <_>
          1 13 28 16 -1.</_>
        <_>
          15 13 14 16 2.</_></rects>
      <tilted>0</tilted></_>
    <_>
      <rects>
        <_>
          3 0 33 36 -1.</_>
        <_>
          3 12 33 12 3.</_></rects>
      <tilted>0</tilted></_>
    <_>
      <rects>
        <_>
          14 11 20 10 -1.</_>
        <_>
          14 11 10 5 2.</_>
        <_>
          24 16 10 5 2.</_></rects>
      <tilted>0</tilted></_>
    <_>
      <rects>
        <_>
          21 9 10 10 -1.</_>
        <_>
          21 9 5 5 2.</_>
        <_>
          26 14 5 5 2.</_></rects>
      <tilted>0</tilted></_>
    <_>
      <rects>
        <_>
          28 15 8 11 -1.</_>
        <_>
          32 15 4 11 2.</_></rects>
      <tilted>0</tilted></_></features></cascade>
</opencv_storage>
