<?xml version="1.0"?>
<opencv_storage>
<cascade>
  <stageType>BOOST</stageType>
  <featureType>HAAR</featureType>
  <height>36</height>
  <width>36</width>
  <stageParams>
    <boostType>GAB</boostType>
    <minHitRate>9.9500000476837158e-01</minHitRate>
    <maxFalseAlarm>5.0000000000000000e-01</maxFalseAlarm>
    <weightTrimRate>9.4999998807907104e-01</weightTrimRate>
    <maxDepth>1</maxDepth>
    <maxWeakCount>100</maxWeakCount></stageParams>
  <featureParams>
    <maxCatCount>0</maxCatCount>
    <featSize>1</featSize>
    <mode>BASIC</mode></featureParams>
  <stageNum>6</stageNum>
  <stages>
    <!-- stage 0 -->
    <_>
      <maxWeakCount>2</maxWeakCount>
      <stageThreshold>8.7912090122699738e-02</stageThreshold>
      <weakClassifiers>
        <_>
          <internalNodes>
            0 -1 6 1.4137396588921547e-02</internalNodes>
          <leafValues>
            -9.1208791732788086e-01 1.</leafValues></_>
        <_>
          <internalNodes>
            0 -1 5 2.9122781008481979e-02</internalNodes>
          <leafValues>
            -8.8118177652359009e-01 1.</leafValues></_></weakClassifiers></_>
    <!-- stage 1 -->
    <_>
      <maxWeakCount>1</maxWeakCount>
      <stageThreshold>9.0476191043853760e-01</stageThreshold>
      <weakClassifiers>
        <_>
          <internalNodes>
            0 -1 1 -2.9329162836074829e-01</internalNodes>
          <leafValues>
            9.0476191043853760e-01 -1.</leafValues></_></weakClassifiers></_>
    <!-- stage 2 -->
    <_>
      <maxWeakCount>1</maxWeakCount>
      <stageThreshold>7.3913043737411499e-01</stageThreshold>
      <weakClassifiers>
        <_>
          <internalNodes>
            0 -1 0 -2.0089420676231384e-01</internalNodes>
          <leafValues>
            7.3913043737411499e-01 -1.</leafValues></_></weakClassifiers></_>
    <!-- stage 3 -->
    <_>
      <maxWeakCount>2</maxWeakCount>
      <stageThreshold>-2.1081054210662842e-01</stageThreshold>
      <weakClassifiers>
        <_>
          <internalNodes>
            0 -1 7 -1.1934789270162582e-01</internalNodes>
          <leafValues>
            8.8888889551162720e-01 -9.3258428573608398e-01</leafValues></_>
        <_>
          <internalNodes>
            0 -1 4 -1.0531110689043999e-02</internalNodes>
          <leafValues>
            -1. 7.2177374362945557e-01</leafValues></_></weakClassifiers></_>
    <!-- stage 4 -->
    <_>
      <maxWeakCount>2</maxWeakCount>
      <stageThreshold>-4.2758998274803162e-01</stageThreshold>
      <weakClassifiers>
        <_>
          <internalNodes>
            0 -1 8 2.8770457953214645e-02</internalNodes>
          <leafValues>
            -9.2771083116531372e-01 4.1666665673255920e-01</leafValues></_>
        <_>
          <internalNodes>
            0 -1 3 1.9004715606570244e-02</internalNodes>
          <leafValues>
            -1. 5.0012087821960449e-01</leafValues></_></weakClassifiers></_>
    <!-- stage 5 -->
    <_>
      <maxWeakCount>2</maxWeakCount>
      <stageThreshold>-1.6268348693847656e-01</stageThreshold>
      <weakClassifiers>
        <_>
          <internalNodes>
            0 -1 9 6.1200372874736786e-02</internalNodes>
          <leafValues>
            -9.0804594755172729e-01 6.0000002384185791e-01</leafValues></_>
        <_>
          <internalNodes>
            0 -1 2 -3.0619800090789795e-01</internalNodes>
          <leafValues>
            1. -7.6268351078033447e-01</leafValues></_></weakClassifiers></_></stages>
  <features>
    <_>
      <rects>
        <_>
          0 0 30 30 -1.</_>
        <_>
          15 0 15 30 2.</_></rects>
      <tilted>0</tilted></_>
    <_>
      <rects>
        <_>
          1 0 35 33 -1.</_>
        <_>
          1 11 35 11 3.</_></rects>
      <tilted>0</tilted></_>
    <_>
      <rects>
        <_>
          2 9 34 16 -1.</_>
        <_>
          19 9 17 16 2.</_></rects>
      <tilted>0</tilted></_>
    <_>
      <rects>
        <_>
          2 14 8 22 -1.</_>
        <_>
          2 25 8 11 2.</_></rects>
      <tilted>0</tilted></_>
    <_>
      <rects>
        <_>
          4 7 15 21 -1.</_>
        <_>
          4 14 15 7 3.</_></rects>
      <tilted>0</tilted></_>
    <_>
      <rects>
        <_>
          9 18 26 12 -1.</_>
        <_>
          9 22 26 4 3.</_></rects>
      <tilted>0</tilted></_>
    <_>
      <rects>
        <_>
          18 14 9 15 -1.</_>
        <_>
          21 14 3 15 3.</_></rects>
      <tilted>0</tilted></_>
    <_>
      <rects>
        <_>
          21 8 15 22 -1.</_>
        <_>
          26 8 5 22 3.</_></rects>
      <tilted>0</tilted></_>
    <_>
      <rects>
        <_>
          26 17 10 5 -1.</_>
        <_>
          31 17 5 5 2.</_></rects>
      <tilted>0</tilted></_>
    <_>
      <rects>
        <_>
          28 0 8 26 -1.</_>
        <_>
          32 0 4 26 2.</_></rects>
      <tilted>0</tilted></_></features></cascade>
</opencv_storage>
