<?xml version="1.0"?>
<opencv_storage>
<cascade>
  <stageType>BOOST</stageType>
  <featureType>HAAR</featureType>
  <height>36</height>
  <width>36</width>
  <stageParams>
    <boostType>GAB</boostType>
    <minHitRate>9.9500000476837158e-01</minHitRate>
    <maxFalseAlarm>5.0000000000000000e-01</maxFalseAlarm>
    <weightTrimRate>9.4999998807907104e-01</weightTrimRate>
    <maxDepth>1</maxDepth>
    <maxWeakCount>100</maxWeakCount></stageParams>
  <featureParams>
    <maxCatCount>0</maxCatCount>
    <featSize>1</featSize>
    <mode>BASIC</mode></featureParams>
  <stageNum>8</stageNum>
  <stages>
    <!-- stage 0 -->
    <_>
      <maxWeakCount>2</maxWeakCount>
      <stageThreshold>-2.4417230486869812e-01</stageThreshold>
      <weakClassifiers>
        <_>
          <internalNodes>
            0 -1 8 8.6747612804174423e-03</internalNodes>
          <leafValues>
            -8.9010989665985107e-01 8.7500000000000000e-01</leafValues></_>
        <_>
          <internalNodes>
            0 -1 11 7.5801310595124960e-04</internalNodes>
          <leafValues>
            -9.2907792329788208e-01 6.4593756198883057e-01</leafValues></_></weakClassifiers></_>
    <!-- stage 1 -->
    <_>
      <maxWeakCount>2</maxWeakCount>
      <stageThreshold>-2.1352489292621613e-01</stageThreshold>
      <weakClassifiers>
        <_>
          <internalNodes>
            0 -1 9 -2.4767644703388214e-02</internalNodes>
          <leafValues>
            1. -9.1208791732788086e-01</leafValues></_>
        <_>
          <internalNodes>
            0 -1 3 -3.0244886875152588e-01</internalNodes>
          <leafValues>
            6.9856303930282593e-01 -1.</leafValues></_></weakClassifiers></_>
    <!-- stage 2 -->
    <_>
      <maxWeakCount>1</maxWeakCount>
      <stageThreshold>4.8148149251937866e-01</stageThreshold>
      <weakClassifiers>
        <_>
          <internalNodes>
            0 -1 0 -3.1753990799188614e-02</internalNodes>
          <leafValues>
            4.8148149251937866e-01 -1.</leafValues></_></weakClassifiers></_>
    <!-- stage 3 -->
    <_>
      <maxWeakCount>2</maxWeakCount>
      <stageThreshold>-5.2439826726913452e-01</stageThreshold>
      <weakClassifiers>
        <_>
          <internalNodes>
            0 -1 10 -1.0709436237812042e-01</internalNodes>
          <leafValues>
            1. -8.9130437374114990e-01</leafValues></_>
        <_>
          <internalNodes>
            0 -1 4 -8.7765278294682503e-04</internalNodes>
          <leafValues>
            3.6690607666969299e-01 -1.</leafValues></_></weakClassifiers></_>
    <!-- stage 4 -->
    <_>
      <maxWeakCount>2</maxWeakCount>
      <stageThreshold>1.6612255573272705e-01</stageThreshold>
      <weakClassifiers>
        <_>
          <internalNodes>
            0 -1 1 -2.8602251783013344e-02</internalNodes>
          <leafValues>
            1. -7.9381442070007324e-01</leafValues></_>
        <_>
          <internalNodes>
            0 -1 6 -8.1360884010791779e-02</internalNodes>
          <leafValues>
            9.5993697643280029e-01 -8.2712775468826294e-01</leafValues></_></weakClassifiers></_>
    <!-- stage 5 -->
    <_>
      <maxWeakCount>2</maxWeakCount>
      <stageThreshold>-6.5436349250376225e-03</stageThreshold>
      <weakClassifiers>
        <_>
          <internalNodes>
            0 -1 12 -1.4485113322734833e-02</internalNodes>
          <leafValues>
            1. -8.1250000000000000e-01</leafValues></_>
        <_>
          <internalNodes>
            0 -1 5 -3.1884998083114624e-01</internalNodes>
          <leafValues>
            8.0595636367797852e-01 -8.1636363267898560e-01</leafValues></_></weakClassifiers></_>
    <!-- stage 6 -->
    <_>
      <maxWeakCount>1</maxWeakCount>
      <stageThreshold>4.8148149251937866e-01</stageThreshold>
      <weakClassifiers>
        <_>
          <internalNodes>
            0 -1 7 7.4655085336416960e-04</internalNodes>
          <leafValues>
            4.8148149251937866e-01 -1.</leafValues></_></weakClassifiers></_>
    <!-- stage 7 -->
    <_>
      <maxWeakCount>1</maxWeakCount>
      <stageThreshold>2.9032257199287415e-01</stageThreshold>
      <weakClassifiers>
        <_>
          <internalNodes>
            0 -1 2 -4.8492990434169769e-02</internalNodes>
          <leafValues>
            2.9032257199287415e-01 -1.</leafValues></_></weakClassifiers></_></stages>
  <features>
    <_>
      <rects>
        <_>
          0 7 22 10 -1.</_>
        <_>
          11 7 11 10 2.</_></rects>
      <tilted>0</tilted></_>
    <_>
      <rects>
        <_>
          0 24 15 12 -1.</_>
        <_>
          0 28 15 4 3.</_></rects>
      <tilted>0</tilted></_>
    <_>
      <rects>
        <_>
          0 24 32 8 -1.</_>
        <_>
          16 24 16 8 2.</_></rects>
      <tilted>0</tilted></_>
    <_>
      <rects>
        <_>
          8 0 26 36 -1.</_>
        <_>
          8 12 26 12 3.</_></rects>
      <tilted>0</tilted></_>
    <_>
      <rects>
        <_>
          8 4 14 28 -1.</_>
        <_>
          8 4 7 14 2.</_>
        <_>
          15 18 7 14 2.</_></rects>
      <tilted>0</tilted></_>
    <_>
      <rects>
        <_>
          9 0 22 30 -1.</_>
        <_>
          9 10 22 10 3.</_></rects>
      <tilted>0</tilted></_>
    <_>
      <rects>
        <_>
          11 9 25 10 -1.</_>
        <_>
          11 14 25 5 2.</_></rects>
      <tilted>0</tilted></_>
    <_>
      <rects>
        <_>
          11 16 7 6 -1.</_>
        <_>
          11 19 7 3 2.</_></rects>
      <tilted>0</tilted></_>
    <_>
      <rects>
        <_>
          18 16 8 12 -1.</_>
        <_>
          18 16 4 6 2.</_>
        <_>
          22 22 4 6 2.</_></rects>
      <tilted>0</tilted></_>
    <_>
      <rects>
        <_>
          20 13 15 6 -1.</_>
        <_>
          25 13 5 6 3.</_></rects>
      <tilted>0</tilted></_>
    <_>
      <rects>
        <_>
          21 3 15 22 -1.</_>
        <_>
          26 3 5 22 3.</_></rects>
      <tilted>0</tilted></_>
    <_>
      <rects>
        <_>
          23 23 11 6 -1.</_>
        <_>
          23 25 11 2 3.</_></rects>
      <tilted>0</tilted></_>
    <_>
      <rects>
        <_>
          26 14 9 4 -1.</_>
        <_>
          29 14 3 4 3.</_></rects>
      <tilted>0</tilted></_></features></cascade>
</opencv_storage>
