<?xml version="1.0"?>
<opencv_storage>
<cascade>
  <stageType>BOOST</stageType>
  <featureType>HAAR</featureType>
  <height>36</height>
  <width>36</width>
  <stageParams>
    <boostType>GAB</boostType>
    <minHitRate>9.9500000476837158e-01</minHitRate>
    <maxFalseAlarm>5.0000000000000000e-01</maxFalseAlarm>
    <weightTrimRate>9.4999998807907104e-01</weightTrimRate>
    <maxDepth>1</maxDepth>
    <maxWeakCount>100</maxWeakCount></stageParams>
  <featureParams>
    <maxCatCount>0</maxCatCount>
    <featSize>1</featSize>
    <mode>BASIC</mode></featureParams>
  <stageNum>8</stageNum>
  <stages>
    <!-- stage 0 -->
    <_>
      <maxWeakCount>2</maxWeakCount>
      <stageThreshold>4.4943820685148239e-02</stageThreshold>
      <weakClassifiers>
        <_>
          <internalNodes>
            0 -1 14 -1.5136588364839554e-02</internalNodes>
          <leafValues>
            1. -9.5505619049072266e-01</leafValues></_>
        <_>
          <internalNodes>
            0 -1 5 3.7168465554714203e-02</internalNodes>
          <leafValues>
            -9.3616974353790283e-01 1.</leafValues></_></weakClassifiers></_>
    <!-- stage 1 -->
    <_>
      <maxWeakCount>2</maxWeakCount>
      <stageThreshold>-1.3300998508930206e-01</stageThreshold>
      <weakClassifiers>
        <_>
          <internalNodes>
            0 -1 8 -1.2060010433197021e-01</internalNodes>
          <leafValues>
            1. -9.5505619049072266e-01</leafValues></_>
        <_>
          <internalNodes>
            0 -1 1 -2.3098319768905640e-01</internalNodes>
          <leafValues>
            8.2204622030258179e-01 -1.</leafValues></_></weakClassifiers></_>
    <!-- stage 2 -->
    <_>
      <maxWeakCount>1</maxWeakCount>
      <stageThreshold>6.6666668653488159e-01</stageThreshold>
      <weakClassifiers>
        <_>
          <internalNodes>
            0 -1 0 -8.9684143662452698e-02</internalNodes>
          <leafValues>
            6.6666668653488159e-01 -1.</leafValues></_></weakClassifiers></_>
    <!-- stage 3 -->
    <_>
      <maxWeakCount>2</maxWeakCount>
      <stageThreshold>-3.7685653567314148e-01</stageThreshold>
      <weakClassifiers>
        <_>
          <internalNodes>
            0 -1 12 -2.6431016623973846e-02</internalNodes>
          <leafValues>
            6.5217393636703491e-01 -9.7619044780731201e-01</leafValues></_>
        <_>
          <internalNodes>
            0 -1 9 -1.9940439611673355e-02</internalNodes>
          <leafValues>
            5.9933394193649292e-01 -9.7142201662063599e-01</leafValues></_></weakClassifiers></_>
    <!-- stage 4 -->
    <_>
      <maxWeakCount>2</maxWeakCount>
      <stageThreshold>-4.2261323332786560e-01</stageThreshold>
      <weakClassifiers>
        <_>
          <internalNodes>
            0 -1 10 -7.2535179555416107e-02</internalNodes>
          <leafValues>
            5.4545456171035767e-01 -9.2941176891326904e-01</leafValues></_>
        <_>
          <internalNodes>
            0 -1 13 -2.5449477136135101e-02</internalNodes>
          <leafValues>
            5.2340579032897949e-01 -9.6806776523590088e-01</leafValues></_></weakClassifiers></_>
    <!-- stage 5 -->
    <_>
      <maxWeakCount>2</maxWeakCount>
      <stageThreshold>-2.1933409571647644e-01</stageThreshold>
      <weakClassifiers>
        <_>
          <internalNodes>
            0 -1 11 1.9473262131214142e-02</internalNodes>
          <leafValues>
            -8.5106384754180908e-01 1.</leafValues></_>
        <_>
          <internalNodes>
            0 -1 2 -3.3478939533233643e-01</internalNodes>
          <leafValues>
            6.3172972202301025e-01 -9.7757989168167114e-01</leafValues></_></weakClassifiers></_>
    <!-- stage 6 -->
    <_>
      <maxWeakCount>2</maxWeakCount>
      <stageThreshold>-4.6034669876098633e-01</stageThreshold>
      <weakClassifiers>
        <_>
          <internalNodes>
            0 -1 7 -1.6479346156120300e-01</internalNodes>
          <leafValues>
            6.8421053886413574e-01 -9.0909093618392944e-01</leafValues></_>
        <_>
          <internalNodes>
            0 -1 6 1.0084297508001328e-02</internalNodes>
          <leafValues>
            4.4874420762062073e-01 -1.</leafValues></_></weakClassifiers></_>
    <!-- stage 7 -->
    <_>
      <maxWeakCount>2</maxWeakCount>
      <stageThreshold>-5.7980328798294067e-01</stageThreshold>
      <weakClassifiers>
        <_>
          <internalNodes>
            0 -1 3 2.4445311282761395e-04</internalNodes>
          <leafValues>
            -9.7333335876464844e-01 1.8750000000000000e-01</leafValues></_>
        <_>
          <internalNodes>
            0 -1 4 1.2032422237098217e-03</internalNodes>
          <leafValues>
            -1. 3.9353004097938538e-01</leafValues></_></weakClassifiers></_></stages>
  <features>
    <_>
      <rects>
        <_>
          0 0 24 26 -1.</_>
        <_>
          12 0 12 26 2.</_></rects>
      <tilted>0</tilted></_>
    <_>
      <rects>
        <_>
          0 0 34 33 -1.</_>
        <_>
          0 11 34 11 3.</_></rects>
      <tilted>0</tilted></_>
    <_>
      <rects>
        <_>
          2 0 33 36 -1.</_>
        <_>
          2 12 33 12 3.</_></rects>
      <tilted>0</tilted></_>
    <_>
      <rects>
        <_>
          3 6 11 12 -1.</_>
        <_>
          3 12 11 6 2.</_></rects>
      <tilted>0</tilted></_>
    <_>
      <rects>
        <_>
          4 24 3 12 -1.</_>
        <_>
          4 30 3 6 2.</_></rects>
      <tilted>0</tilted></_>
    <_>
      <rects>
        <_>
          5 19 31 12 -1.</_>
        <_>
          5 23 31 4 3.</_></rects>
      <tilted>0</tilted></_>
    <_>
      <rects>
        <_>
          15 14 5 18 -1.</_>
        <_>
          15 23 5 9 2.</_></rects>
      <tilted>0</tilted></_>
    <_>
      <rects>
        <_>
          20 3 15 29 -1.</_>
        <_>
          25 3 5 29 3.</_></rects>
      <tilted>0</tilted></_>
    <_>
      <rects>
        <_>
          21 2 15 23 -1.</_>
        <_>
          26 2 5 23 3.</_></rects>
      <tilted>0</tilted></_>
    <_>
      <rects>
        <_>
          21 12 10 19 -1.</_>
        <_>
          26 12 5 19 2.</_></rects>
      <tilted>0</tilted></_>
    <_>
      <rects>
        <_>
          22 14 12 15 -1.</_>
        <_>
          26 14 4 15 3.</_></rects>
      <tilted>0</tilted></_>
    <_>
      <rects>
        <_>
          22 19 4 12 -1.</_>
        <_>
          22 23 4 4 3.</_></rects>
      <tilted>0</tilted></_>
    <_>
      <rects>
        <_>
          24 4 9 18 -1.</_>
        <_>
          27 4 3 18 3.</_></rects>
      <tilted>0</tilted></_>
    <_>
      <rects>
        <_>
          29 0 3 20 -1.</_>
        <_>
          29 10 3 10 2.</_></rects>
      <tilted>0</tilted></_>
    <_>
      <rects>
        <_>
          29 16 6 20 -1.</_>
        <_>
          29 16 3 10 2.</_>
        <_>
          32 26 3 10 2.</_></rects>
      <tilted>0</tilted></_></features></cascade>
</opencv_storage>
