<?xml version="1.0"?>
<opencv_storage>
<cascade>
  <stageType>BOOST</stageType>
  <featureType>HAAR</featureType>
  <height>36</height>
  <width>36</width>
  <stageParams>
    <boostType>GAB</boostType>
    <minHitRate>9.9500000476837158e-01</minHitRate>
    <maxFalseAlarm>5.0000000000000000e-01</maxFalseAlarm>
    <weightTrimRate>9.4999998807907104e-01</weightTrimRate>
    <maxDepth>1</maxDepth>
    <maxWeakCount>100</maxWeakCount></stageParams>
  <featureParams>
    <maxCatCount>0</maxCatCount>
    <featSize>1</featSize>
    <mode>BASIC</mode></featureParams>
  <stageNum>8</stageNum>
  <stages>
    <!-- stage 0 -->
    <_>
      <maxWeakCount>2</maxWeakCount>
      <stageThreshold>2.2727273404598236e-02</stageThreshold>
      <weakClassifiers>
        <_>
          <internalNodes>
            0 -1 10 4.6644024550914764e-03</internalNodes>
          <leafValues>
            -9.7727274894714355e-01 1.</leafValues></_>
        <_>
          <internalNodes>
            0 -1 14 2.2148201242089272e-03</internalNodes>
          <leafValues>
            -9.3478256464004517e-01 1.</leafValues></_></weakClassifiers></_>
    <!-- stage 1 -->
    <_>
      <maxWeakCount>2</maxWeakCount>
      <stageThreshold>6.6666670143604279e-02</stageThreshold>
      <weakClassifiers>
        <_>
          <internalNodes>
            0 -1 11 -6.0397308319807053e-02</internalNodes>
          <leafValues>
            1. -9.3333333730697632e-01</leafValues></_>
        <_>
          <internalNodes>
            0 -1 12 -2.4867190048098564e-02</internalNodes>
          <leafValues>
            1. -9.1752380132675171e-01</leafValues></_></weakClassifiers></_>
    <!-- stage 2 -->
    <_>
      <maxWeakCount>2</maxWeakCount>
      <stageThreshold>-3.1466260552406311e-01</stageThreshold>
      <weakClassifiers>
        <_>
          <internalNodes>
            0 -1 3 -2.2212234139442444e-01</internalNodes>
          <leafValues>
            8.0952382087707520e-01 -9.7674417495727539e-01</leafValues></_>
        <_>
          <internalNodes>
            0 -1 2 -3.0052516609430313e-02</internalNodes>
          <leafValues>
            6.6208159923553467e-01 -1.</leafValues></_></weakClassifiers></_>
    <!-- stage 3 -->
    <_>
      <maxWeakCount>2</maxWeakCount>
      <stageThreshold>-3.5516786575317383e-01</stageThreshold>
      <weakClassifiers>
        <_>
          <internalNodes>
            0 -1 6 -3.3333086967468262e-01</internalNodes>
          <leafValues>
            5.0000000000000000e-01 -9.5180720090866089e-01</leafValues></_>
        <_>
          <internalNodes>
            0 -1 13 -9.6819370985031128e-02</internalNodes>
          <leafValues>
            6.9883406162261963e-01 -8.5516786575317383e-01</leafValues></_></weakClassifiers></_>
    <!-- stage 4 -->
    <_>
      <maxWeakCount>2</maxWeakCount>
      <stageThreshold>-5.0075638294219971e-01</stageThreshold>
      <weakClassifiers>
        <_>
          <internalNodes>
            0 -1 5 -6.8024680018424988e-02</internalNodes>
          <leafValues>
            3.0769231915473938e-01 -9.2592591047286987e-01</leafValues></_>
        <_>
          <internalNodes>
            0 -1 8 -1.3849948300048709e-04</internalNodes>
          <leafValues>
            4.2516952753067017e-01 -1.</leafValues></_></weakClassifiers></_>
    <!-- stage 5 -->
    <_>
      <maxWeakCount>2</maxWeakCount>
      <stageThreshold>-5.5068612098693848e-01</stageThreshold>
      <weakClassifiers>
        <_>
          <internalNodes>
            0 -1 7 -7.8358119353652000e-03</internalNodes>
          <leafValues>
            2.6666668057441711e-01 -9.7402596473693848e-01</leafValues></_>
        <_>
          <internalNodes>
            0 -1 4 -1.0076104663312435e-03</internalNodes>
          <leafValues>
            4.2333984375000000e-01 -1.</leafValues></_></weakClassifiers></_>
    <!-- stage 6 -->
    <_>
      <maxWeakCount>2</maxWeakCount>
      <stageThreshold>-5.8248102664947510e-01</stageThreshold>
      <weakClassifiers>
        <_>
          <internalNodes>
            0 -1 15 -5.0157234072685242e-02</internalNodes>
          <leafValues>
            3.3333334326744080e-01 -9.4999998807907104e-01</leafValues></_>
        <_>
          <internalNodes>
            0 -1 9 -4.4850906124338508e-04</internalNodes>
          <leafValues>
            -1. 3.6751896142959595e-01</leafValues></_></weakClassifiers></_>
    <!-- stage 7 -->
    <_>
      <maxWeakCount>2</maxWeakCount>
      <stageThreshold>1.6612255573272705e-01</stageThreshold>
      <weakClassifiers>
        <_>
          <internalNodes>
            0 -1 1 -2.6195526123046875e-01</internalNodes>
          <leafValues>
            1. -7.9381442070007324e-01</leafValues></_>
        <_>
          <internalNodes>
            0 -1 0 -1.9785356521606445e-01</internalNodes>
          <leafValues>
            9.5993697643280029e-01 -8.2712775468826294e-01</leafValues></_></weakClassifiers></_></stages>
  <features>
    <_>
      <rects>
        <_>
          0 0 21 30 -1.</_>
        <_>
          7 0 7 30 3.</_></rects>
      <tilted>0</tilted></_>
    <_>
      <rects>
        <_>
          0 10 36 11 -1.</_>
        <_>
          18 10 18 11 2.</_></rects>
      <tilted>0</tilted></_>
    <_>
      <rects>
        <_>
          1 18 16 15 -1.</_>
        <_>
          9 18 8 15 2.</_></rects>
      <tilted>0</tilted></_>
    <_>
      <rects>
        <_>
          3 0 31 33 -1.</_>
        <_>
          3 11 31 11 3.</_></rects>
      <tilted>0</tilted></_>
    <_>
      <rects>
        <_>
          3 5 18 4 -1.</_>
        <_>
          9 5 6 4 3.</_></rects>
      <tilted>0</tilted></_>
    <_>
      <rects>
        <_>
          4 0 16 36 -1.</_>
        <_>
          12 0 8 36 2.</_></rects>
      <tilted>0</tilted></_>
    <_>
      <rects>
        <_>
          4 0 32 36 -1.</_>
        <_>
          4 12 32 12 3.</_></rects>
      <tilted>0</tilted></_>
    <_>
      <rects>
        <_>
          4 33 20 3 -1.</_>
        <_>
          14 33 10 3 2.</_></rects>
      <tilted>0</tilted></_>
    <_>
      <rects>
        <_>
          12 5 6 4 -1.</_>
        <_>
          15 5 3 4 2.</_></rects>
      <tilted>0</tilted></_>
    <_>
      <rects>
        <_>
          12 7 9 2 -1.</_>
        <_>
          15 7 3 2 3.</_></rects>
      <tilted>0</tilted></_>
    <_>
      <rects>
        <_>
          16 17 15 1 -1.</_>
        <_>
          21 17 5 1 3.</_></rects>
      <tilted>0</tilted></_>
    <_>
      <rects>
        <_>
          18 10 18 13 -1.</_>
        <_>
          24 10 6 13 3.</_></rects>
      <tilted>0</tilted></_>
    <_>
      <rects>
        <_>
          22 6 10 16 -1.</_>
        <_>
          22 6 5 8 2.</_>
        <_>
          27 14 5 8 2.</_></rects>
      <tilted>0</tilted></_>
    <_>
      <rects>
        <_>
          23 1 12 29 -1.</_>
        <_>
          27 1 4 29 3.</_></rects>
      <tilted>0</tilted></_>
    <_>
      <rects>
        <_>
          23 17 8 4 -1.</_>
        <_>
          23 17 4 2 2.</_>
        <_>
          27 19 4 2 2.</_></rects>
      <tilted>0</tilted></_>
    <_>
      <rects>
        <_>
          26 0 7 18 -1.</_>
        <_>
          26 9 7 9 2.</_></rects>
      <tilted>0</tilted></_></features></cascade>
</opencv_storage>
